{"best": {"aes": {"rmse_aes": 1137.824282225609, "pearson_aes": -0.07264486415044735, "spearman_aes": -0.03750032124780794, "kappa_aes": -0.000613500095376196, "aes": 0.0, "aes_weight_coef": 0.0}, "ged": {"f1_score_avg_ged": 0.7734350830153656, "f1_score_macro_ged": 0.6569452495719227, "f1_score_weighted_ged": 0.8030179483394584, "f_0_5_ged": 0.5805776475512766, "ged": 0.10633090069127638, "ged_weight_coef": 1.0}, "ner": {"f1_score_avg_ner": 0.9820489856314006, "f1_score_macro_ner": 0.8980472824962114, "f1_score_weighted_ner": 0.9817625578517611, "ner": 0.005268612594971823, "ner_weight_coef": 0.10000000149011612}}, "train": {"loss": [0.2851, 0.211], "learning_rate": [6.339622641509433e-05, 5.679245283018868e-05], "epoch": [1.89, 3.77], "step": [500, 1000]}, "eval": {"rmse_aes": [1137.824282225609, 1137.824282225609, 1137.810580310566, 1137.810580310566], "pearson_aes": [-0.07264486415044735, -0.07264486415044735, -0.08578653439388807, -0.08578653439388807], "spearman_aes": [-0.03750032124780794, -0.03750032124780794, -0.04421666186531198, -0.04421666186531198], "kappa_aes": [-0.000613500095376196, -0.000613500095376196, -0.0006197706848467543, -0.0006197706848467543], "f1_score_avg_ged": [0.7734350830153656, 0.8284005362483242, 0.8494035956137637, 0.8624660547935787], "f1_score_macro_ged": [0.6569452495719227, 0.6987396403074795, 0.7179033390887933, 0.7243003026872048], "f1_score_weighted_ged": [0.8030179483394584, 0.8431568090271303, 0.8586394660121293, 0.8669141413064722], "f_0_5_ged": [0.5805776475512766, 0.576136415866158, 0.5776930409914205, 0.555116554721454], "f1_score_avg_ner": [0.9582376075697987, 0.9740859000817725, 0.9794011136637981, 0.9820489856314006], "f1_score_macro_ner": [0.7056825482363915, 0.8438431277808643, 0.880023438400182, 0.8980472824962114], "f1_score_weighted_ner": [0.9545346101016619, 0.9733699556974444, 0.9789920418285343, 0.9817625578517611], "aes": [0.0, 0.0, 0.0, 0.0], "ged": [0.10633090069127638, 0.10763776718184005, 0.11361480036447215, 0.1311002165772194], "ner": [0.010951664504530124, 0.00730057075338135, 0.005929234686719124, 0.005268612594971823], "total_loss": [0.1172825651958065, 0.1149383379352214, 0.11954403505119127, 0.13636882917219123], "aes_weight_coef": [0.0, 0.0, 0.0, 0.0], "ged_weight_coef": [1.0, 1.0, 1.0, 1.0], "ner_weight_coef": [0.10000000149011612, 0.10000000149011612, 0.10000000149011612, 0.10000000149011612], "epoch": [1.0, 2.0, 3.0, 4.0], "step": [264, 529, 794, 1059]}, "test": {"rmse_aes": 1122.8488832355551, "pearson_aes": 0.03550247215772167, "spearman_aes": 0.04635145917145024, "kappa_aes": 0.00048738904372014336, "f1_score_avg_ged": 0.8445424181696727, "f1_score_macro_ged": 0.7153877459357134, "f1_score_weighted_ged": 0.8490198757688351, "f_0_5_ged": 0.547153024911032, "f1_score_avg_ner": 0.9745235275115753, "f1_score_macro_ner": 0.8583127068019805, "f1_score_weighted_ner": 0.9746873388483464, "aes": 0.0, "ged": 0.1934390351885841, "ner": 0.006800348576646121, "total_loss": 0.20023938376523023, "aes_weight_coef": 0.0, "ged_weight_coef": 1.0, "ner_weight_coef": 0.10000000149011612}, "info": {"tasks": ["aes", "ged", "ner"], "outputs": ["loss", "labels", "preds"], "map_out_to_task": {"aes_loss": "aes", "aes_labels": "aes", "aes_preds": "aes", "ged_loss": "ged", "ged_labels": "ged", "ged_preds": "ged", "ner_loss": "ner", "ner_labels": "ner", "ner_preds": "ner"}, "map_out_to_out": {"aes_loss": "loss", "aes_labels": "labels", "aes_preds": "preds", "ged_loss": "loss", "ged_labels": "labels", "ged_preds": "preds", "ner_loss": "loss", "ner_labels": "labels", "ner_preds": "preds"}, "map_task_index": {"aes": 0, "ged": 1, "ner": 2}, "map_index_task": {"0": "aes", "1": "ged", "2": "ner"}, "optimizer_weighting": "fixed", "epochs_to_avg_over": 2, "temp": 2, "init_task_weightings": {"aes": 0.0, "ged": 1.0, "ner": 0.1}, "metrics_to_track_by_task": {"aes": "pearson_aes", "ged": "f_0_5_ged", "ner": "f1_score_avg_ner"}, "regression_tasks": ["aes"], "classification_tasks": ["ner", "ged"], "fce_tasks": ["aes", "ged"], "task_priorities_priority_as_key": {"primary_task": "aes", "secondary_task": "ged", "aux_task": "ner"}, "early_stopping_patience": 2, "early_stopping_metric": "loss", "pretrained_model": "distilroberta-base", "frozen_layers": "all", "scoring": "script", "learning_rate": 7e-05, "batch_size": 8, "weight_decay": 0.01, "adam_epsilon": 1e-08, "normalized_values": [40, 0], "model_name": "distilroberta-base_1630661565", "runtime": 234.15489983558655, "steps_per_sec": 0.2211094427153792}, "preds": {"aes": {"preds": [-0.04415126517415047, -0.042010895907878876, -0.050549790263175964, -0.04109622910618782, -0.05323784798383713, -0.04855976998806, -0.04691757261753082, -0.04822966083884239, -0.04002653434872627, -0.04850173741579056, -0.0405336394906044, -0.050562892109155655, -0.04082237929105759, -0.04541068896651268, -0.0509069599211216, -0.056882791221141815, -0.04752415418624878, -0.0444193035364151, -0.043917957693338394, -0.04388495162129402, -0.0437166690826416, -0.04275983199477196, -0.049385715276002884, -0.04616573452949524, -0.046197447925806046, -0.0550747886300087, -0.035999078303575516, -0.05016907677054405, -0.04875374957919121, -0.03582320362329483, -0.03810329735279083, -0.04197869077324867, -0.037338677793741226, -0.042879533022642136, -0.04530898854136467, -0.05153774842619896, -0.04637685418128967, -0.04896761476993561, -0.04049770534038544, -0.058273717761039734, -0.04310254007577896, -0.05133557692170143, -0.04939865693449974, -0.051408641040325165, -0.04018242657184601, -0.04485888406634331, -0.0492452010512352, -0.05191447585821152, -0.038985151797533035, -0.04036271572113037, -0.057286303490400314, -0.045681603252887726, -0.04196023941040039, -0.037279434502124786, -0.05312336981296539, -0.03908008337020874, -0.04150630906224251, -0.043635208159685135, -0.04911990463733673, -0.051822200417518616, -0.055575840175151825, -0.04348400980234146, -0.03418111428618431, -0.05092892423272133, -0.0498240627348423, -0.04840543493628502, -0.048885248601436615, -0.05224118381738663, -0.05482529103755951, -0.04191739112138748, -0.03958843648433685, -0.036409925669431686, -0.053417183458805084, -0.04047652706503868, -0.039210084825754166, -0.04601899906992912, -0.040272049605846405, -0.04604325070977211, -0.04535404592752457, -0.050094135105609894, -0.050830405205488205, -0.05329357087612152, -0.04102127626538277, -0.047040797770023346, -0.048207882791757584, -0.04812339320778847, -0.0508621446788311, -0.046707767993211746, -0.036486174911260605, -0.04940248653292656, -0.052578676491975784, -0.0604688785970211, -0.0492263101041317, -0.05593264847993851, -0.04886481165885925, -0.045740775763988495], "labels": [30.0, 26.0, 23.0, 26.0, 26.0, 38.0, 27.0, 39.0, 25.0, 24.0, 25.0, 27.0, 30.0, 27.0, 20.0, 21.0, 21.0, 26.0, 22.0, 24.0, 38.0, 30.0, 34.0, 24.0, 23.0, 22.0, 23.0, 39.0, 34.0, 37.0, 31.0, 28.0, 26.0, 29.0, 34.0, 26.0, 34.0, 19.0, 26.0, 31.0, 18.0, 19.0, 25.0, 26.0, 29.0, 29.0, 18.0, 27.0, 35.0, 22.0, 36.0, 14.0, 24.0, 29.0, 28.0, 24.0, 25.0, 37.0, 24.0, 36.0, 13.0, 23.0, 29.0, 31.0, 23.0, 28.0, 26.0, 26.0, 21.0, 38.0, 32.0, 29.0, 36.0, 40.0, 29.0, 34.0, 36.0, 25.0, 37.0, 17.0, 32.0, 25.0, 25.0, 36.0, 31.0, 27.0, 19.0, 28.0, 24.0, 20.0, 25.0, 23.0, 22.0, 23.0, 27.0, 30.0]}}}