{"best": {"aes": {"rmse_aes": 28.396253665267576, "pearson_aes": NaN, "spearman_aes": NaN, "kappa_aes": 0.0, "aes": 0.0, "aes_weight_coef": 0.0}, "ged": {"f1_score_avg_ged": 0.8083599738750816, "f1_score_macro_ged": 0.686965221220956, "f1_score_weighted_ged": 0.8294077172006837, "f_0_5_ged": 0.5940332658628883, "ged": 0.1116010470445766, "ged_weight_coef": 1.0}, "ner": {"f1_score_avg_ner": 0.9778824812117908, "f1_score_macro_ner": 0.8892452265286105, "f1_score_weighted_ner": 0.9778490155178003, "ner": 0.005866173124157412, "ner_weight_coef": 0.10000000149011612}}, "train": {"loss": [0.3411, 0.2927, 0.2645, 0.2422, 0.2218], "learning_rate": [6.339622641509433e-05, 5.679245283018868e-05, 5.0188679245283013e-05, 4.3584905660377356e-05, 3.69811320754717e-05], "epoch": [1.89, 3.77, 5.66, 7.55, 9.43], "step": [500, 1000, 1500, 2000, 2500]}, "eval": {"rmse_aes": [28.396253665267576, 28.396253665267576, 28.396253665267576, 28.396253665267576, 28.396253665267576, 28.396253665267576, 28.396253665267576, 28.396253665267576, 28.396253665267576, 28.396253665267576], "pearson_aes": [NaN, NaN, NaN, NaN, NaN, NaN, NaN, NaN, NaN, NaN], "spearman_aes": [NaN, NaN, NaN, NaN, NaN, NaN, NaN, NaN, NaN, NaN], "kappa_aes": [0.0, 0.0, 0.0, 0.0, 0.0, 0.0, 0.0, 0.0, 0.0, 0.0], "f1_score_avg_ged": [0.7539445189233783, 0.7842631741775807, 0.7850881715994638, 0.7194665016671823, 0.773538207693101, 0.7526038981128184, 0.7956756385136297, 0.7974631329277097, 0.8064349798906878, 0.8083599738750816], "f1_score_macro_ged": [0.6133799987968799, 0.6377472682103832, 0.6479907527538549, 0.6170931237546531, 0.6572053512418938, 0.6437623878849181, 0.6755973228458015, 0.6782643332115899, 0.6845261961494947, 0.686965221220956], "f1_score_weighted_ged": [0.7837226248916851, 0.8060889045081356, 0.8085129137233458, 0.7617647694325305, 0.8031242471870942, 0.7876457201557189, 0.8198147789817991, 0.8213607857764261, 0.8278249694289982, 0.8294077172006837], "f_0_5_ged": [0.4712244109694863, 0.48274472942124347, 0.5161546259972671, 0.5705426356589147, 0.5812931575643439, 0.5869881269687424, 0.5885148857105821, 0.593473092716663, 0.5905615607698393, 0.5940332658628883], "f1_score_avg_ner": [0.8989720026478719, 0.9291888945134535, 0.9401697753202757, 0.953175499396441, 0.9609633581246836, 0.967777734511896, 0.9718663603442234, 0.9749425645418792, 0.9775514972158406, 0.9778824812117908], "f1_score_macro_ner": [0.45151857071248575, 0.6432332930199595, 0.7192438550820179, 0.7797441561676384, 0.8127486850162644, 0.8478410761108961, 0.8640416879306095, 0.8776209207813022, 0.8851737652461118, 0.8892452265286105], "f1_score_weighted_ner": [0.8888260768359977, 0.9223467424425638, 0.936794443222575, 0.9522105675568416, 0.9594383659119278, 0.9671957664607055, 0.9716768798451911, 0.9749566857657946, 0.9774427763317295, 0.9778490155178003], "aes": [0.0, 0.0, 0.0, 0.0, 0.0, 0.0, 0.0, 0.0, 0.0, 0.0], "ged": [0.12653337245763735, 0.12262944426647453, 0.11793793633926747, 0.10955501919568972, 0.10738118027531823, 0.10627383756083111, 0.10729102825009545, 0.10692844418592232, 0.10963974026746529, 0.1116010470445766], "ner": [0.026767739852847056, 0.01754609904750142, 0.014563742635208507, 0.011833750556201436, 0.009847503003859243, 0.008376107469937482, 0.007271994814969773, 0.006659757367573505, 0.006098704753703502, 0.005866173124157412], "total_loss": [0.1533011123104844, 0.14017554331397594, 0.13250167897447598, 0.12138876975189115, 0.11722868327917747, 0.1146499450307686, 0.11456302306506523, 0.11358820155349582, 0.11573844502116878, 0.11746722016873401], "aes_weight_coef": [0.0, 0.0, 0.0, 0.0, 0.0, 0.0, 0.0, 0.0, 0.0, 0.0], "ged_weight_coef": [1.0, 1.0, 1.0, 1.0, 1.0, 1.0, 1.0, 1.0, 1.0, 1.0], "ner_weight_coef": [0.10000000149011612, 0.10000000149011612, 0.10000000149011612, 0.10000000149011612, 0.10000000149011612, 0.10000000149011612, 0.10000000149011612, 0.10000000149011612, 0.10000000149011612, 0.10000000149011612], "epoch": [1.0, 2.0, 3.0, 4.0, 5.0, 6.0, 7.0, 8.0, 9.0, 10.0], "step": [264, 529, 794, 1059, 1324, 1589, 1854, 2119, 2384, 2649]}, "test": {"rmse_aes": 28.024171114712146, "pearson_aes": NaN, "spearman_aes": NaN, "kappa_aes": 0.0, "f1_score_avg_ged": 0.7771543086172344, "f1_score_macro_ged": 0.6679724766725199, "f1_score_weighted_ged": 0.8006786919596863, "f_0_5_ged": 0.578031176078122, "f1_score_avg_ner": 0.9695919026596317, "f1_score_macro_ner": 0.8465304021109176, "f1_score_weighted_ner": 0.9701241320706, "aes": 0.0, "ged": 0.16686307674362547, "ner": 0.007674117871959295, "total_loss": 0.17453719461558476, "aes_weight_coef": 0.0, "ged_weight_coef": 1.0, "ner_weight_coef": 0.10000000149011612}, "info": {"tasks": ["aes", "ged", "ner"], "outputs": ["loss", "labels", "preds"], "map_out_to_task": {"aes_loss": "aes", "aes_labels": "aes", "aes_preds": "aes", "ged_loss": "ged", "ged_labels": "ged", "ged_preds": "ged", "ner_loss": "ner", "ner_labels": "ner", "ner_preds": "ner"}, "map_out_to_out": {"aes_loss": "loss", "aes_labels": "labels", "aes_preds": "preds", "ged_loss": "loss", "ged_labels": "labels", "ged_preds": "preds", "ner_loss": "loss", "ner_labels": "labels", "ner_preds": "preds"}, "map_task_index": {"aes": 0, "ged": 1, "ner": 2}, "map_index_task": {"0": "aes", "1": "ged", "2": "ner"}, "optimizer_weighting": "fixed", "epochs_to_avg_over": 2, "temp": 2, "init_task_weightings": {"aes": 0, "ged": 1, "ner": 0.1}, "metrics_to_track_by_task": {"aes": "pearson_aes", "ged": "f_0_5_ged", "ner": "f1_score_avg_ner"}, "regression_tasks": ["aes"], "classification_tasks": ["ner", "ged"], "fce_tasks": ["aes", "ged"], "task_priorities_priority_as_key": {"primary_task": "aes", "secondary_task": "ged", "aux_task": "ner"}, "early_stopping_patience": 2, "early_stopping_metric": "loss", "pretrained_model": "distilroberta-base", "frozen_layers": "all", "scoring": "script", "learning_rate": 7e-05, "batch_size": 8, "weight_decay": 0.01, "adam_epsilon": 1e-08, "normalized_values": null, "model_name": "distilroberta-base_1630622403", "runtime": 580.1477522850037, "steps_per_sec": 0.2190063240033989}, "preds": {"aes": {"preds": [-0.13833411037921906, -0.1470123529434204, -0.15945060551166534, -0.15715552866458893, -0.1614464372396469, -0.15477415919303894, -0.1514366716146469, -0.14437885582447052, -0.1574227213859558, -0.15461380779743195, -0.1503240466117859, -0.14218902587890625, -0.1438477784395218, -0.14820918440818787, -0.1499558687210083, -0.14797237515449524, -0.13954561948776245, -0.13942009210586548, -0.145564004778862, -0.14856520295143127, -0.15038111805915833, -0.15586920082569122, -0.15026336908340454, -0.14931532740592957, -0.13910983502864838, -0.14724130928516388, -0.14412111043930054, -0.15434856712818146, -0.14293822646141052, -0.1429300457239151, -0.1538083553314209, -0.15667229890823364, -0.15643683075904846, -0.15594109892845154, -0.14645692706108093, -0.13756756484508514, -0.15316517651081085, -0.14578460156917572, -0.1514555811882019, -0.1557292938232422, -0.1492326706647873, -0.14756520092487335, -0.14988011121749878, -0.14246368408203125, -0.13756372034549713, -0.14780567586421967, -0.14743508398532867, -0.14503483474254608, -0.14961721003055573, -0.14956624805927277, -0.15375608205795288, -0.15119077265262604, -0.14456111192703247, -0.14552108943462372, -0.15058770775794983, -0.1446906328201294, -0.14883585274219513, -0.15324914455413818, -0.14212709665298462, -0.15145699679851532, -0.1514470875263214, -0.14961948990821838, -0.1359740048646927, -0.145676851272583, -0.14924079179763794, -0.14912763237953186, -0.14598438143730164, -0.14083784818649292, -0.1530931293964386, -0.14125660061836243, -0.15478159487247467, -0.15419837832450867, -0.15718069672584534, -0.147485613822937, -0.13102447986602783, -0.15541653335094452, -0.15007057785987854, -0.14714573323726654, -0.14067025482654572, -0.1387992799282074, -0.14428399503231049, -0.15116408467292786, -0.15055100619792938, -0.1397722363471985, -0.15287818014621735, -0.14966632425785065, -0.14661253988742828, -0.16293084621429443, -0.15308652818202972, -0.14148324728012085, -0.1427704393863678, -0.1364016830921173, -0.1531713306903839, -0.151953786611557, -0.1552410125732422, -0.13830028474330902], "labels": [30.0, 26.0, 23.0, 26.0, 26.0, 38.0, 27.0, 39.0, 25.0, 24.0, 25.0, 27.0, 30.0, 27.0, 20.0, 21.0, 21.0, 26.0, 22.0, 24.0, 38.0, 30.0, 34.0, 24.0, 23.0, 22.0, 23.0, 39.0, 34.0, 37.0, 31.0, 28.0, 26.0, 29.0, 34.0, 26.0, 34.0, 19.0, 26.0, 31.0, 18.0, 19.0, 25.0, 26.0, 29.0, 29.0, 18.0, 27.0, 35.0, 22.0, 36.0, 14.0, 24.0, 29.0, 28.0, 24.0, 25.0, 37.0, 24.0, 36.0, 13.0, 23.0, 29.0, 31.0, 23.0, 28.0, 26.0, 26.0, 21.0, 38.0, 32.0, 29.0, 36.0, 40.0, 29.0, 34.0, 36.0, 25.0, 37.0, 17.0, 32.0, 25.0, 25.0, 36.0, 31.0, 27.0, 19.0, 28.0, 24.0, 20.0, 25.0, 23.0, 22.0, 23.0, 27.0, 30.0]}}}