{"best": {"aes": {"rmse_aes": 28.396253665267576, "pearson_aes": NaN, "spearman_aes": NaN, "kappa_aes": 0.0, "aes": 0.0, "aes_weight_coef": 0.0}, "ged": {"f1_score_avg_ged": 0.7650132343336427, "f1_score_macro_ged": 0.6469876250984663, "f1_score_weighted_ged": 0.7961387085960078, "f_0_5_ged": 0.5655468132051122, "ged": 0.10979156369386717, "ged_weight_coef": 1.0}, "ner": {"f1_score_avg_ner": 0.9654413768934231, "f1_score_macro_ner": 0.8299932256900343, "f1_score_weighted_ner": 0.9649813329600584, "ner": 0.009082045611860446, "ner_weight_coef": 0.10000000149011612}}, "train": {"loss": [0.333, 0.2751, 0.2546], "learning_rate": [0.0004528301886792453, 0.0004056603773584906, 0.0003584905660377358], "epoch": [1.89, 3.77, 5.66], "step": [500, 1000, 1500]}, "eval": {"rmse_aes": [28.396253665267576, 28.396253665267576, 28.396253665267576, 28.396253665267576, 28.396253665267576, 28.396253665267576], "pearson_aes": [NaN, NaN, NaN, NaN, NaN, NaN], "spearman_aes": [NaN, NaN, NaN, NaN, NaN, NaN], "kappa_aes": [0.0, 0.0, 0.0, 0.0, 0.0, 0.0], "f1_score_avg_ged": [0.7983568801347496, 0.7619194940015812, 0.7777663194802517, 0.7650132343336427, 0.8314255267952287, 0.8442817366195731], "f1_score_macro_ged": [0.6428753791534012, 0.6374579882659503, 0.6528180497731555, 0.6469876250984663, 0.6820702217423612, 0.6857289883311798], "f1_score_weighted_ged": [0.8150592950877863, 0.7926752500683737, 0.8050083643023638, 0.7961387085960078, 0.8412981529078561, 0.8488396581451649], "f_0_5_ged": [0.46542246038712065, 0.5378829264192966, 0.5530141085934159, 0.5655468132051122, 0.5080610438693011, 0.48292779622379706], "f1_score_avg_ner": [0.8958763288033955, 0.9378723569954441, 0.9487558895681633, 0.956193294653635, 0.9599704061368327, 0.9654413768934231], "f1_score_macro_ner": [0.4442998984421242, 0.6437276738964217, 0.7373598449707012, 0.7739695379706313, 0.8072596927740477, 0.8299932256900343], "f1_score_weighted_ner": [0.8947906949646934, 0.9350441133487243, 0.9481640967396296, 0.9552935651393567, 0.9593453724134535, 0.9649813329600584], "aes": [0.0, 0.0, 0.0, 0.0, 0.0, 0.0], "ged": [0.12589674079140953, 0.11463312076967816, 0.11193924449210943, 0.10979156369386717, 0.12171924391458201, 0.13160348215768503], "ner": [0.02495945396638194, 0.015393137314551792, 0.012982324664589278, 0.010984805856593127, 0.010343011728552886, 0.009082045611860446], "total_loss": [0.15085619475779144, 0.13002625808422996, 0.1249215691566987, 0.1207763695504603, 0.1320622556431349, 0.1406855277695455], "aes_weight_coef": [0.0, 0.0, 0.0, 0.0, 0.0, 0.0], "ged_weight_coef": [1.0, 1.0, 1.0, 1.0, 1.0, 1.0], "ner_weight_coef": [0.10000000149011612, 0.10000000149011612, 0.10000000149011612, 0.10000000149011612, 0.10000000149011612, 0.10000000149011612], "epoch": [1.0, 2.0, 3.0, 4.0, 5.0, 6.0], "step": [264, 529, 794, 1059, 1324, 1589]}, "test": {"rmse_aes": 28.024171114712146, "pearson_aes": NaN, "spearman_aes": NaN, "kappa_aes": 0.0, "f1_score_avg_ged": 0.821002004008016, "f1_score_macro_ged": 0.6796898885448779, "f1_score_weighted_ged": 0.8279772218724166, "f_0_5_ged": 0.49599350846941875, "f1_score_avg_ner": 0.9581780984171422, "f1_score_macro_ner": 0.8001913740443164, "f1_score_weighted_ner": 0.9584083571691819, "aes": 0.0, "ged": 0.186557894661313, "ner": 0.010585536892038016, "total_loss": 0.19714343155335104, "aes_weight_coef": 0.0, "ged_weight_coef": 1.0, "ner_weight_coef": 0.10000000149011612}, "info": {"tasks": ["aes", "ged", "ner"], "outputs": ["loss", "labels", "preds"], "map_out_to_task": {"aes_loss": "aes", "aes_labels": "aes", "aes_preds": "aes", "ged_loss": "ged", "ged_labels": "ged", "ged_preds": "ged", "ner_loss": "ner", "ner_labels": "ner", "ner_preds": "ner"}, "map_out_to_out": {"aes_loss": "loss", "aes_labels": "labels", "aes_preds": "preds", "ged_loss": "loss", "ged_labels": "labels", "ged_preds": "preds", "ner_loss": "loss", "ner_labels": "labels", "ner_preds": "preds"}, "map_task_index": {"aes": 0, "ged": 1, "ner": 2}, "map_index_task": {"0": "aes", "1": "ged", "2": "ner"}, "optimizer_weighting": "fixed", "epochs_to_avg_over": 2, "temp": 2, "init_task_weightings": {"aes": 0, "ged": 1, "ner": 0.1}, "metrics_to_track_by_task": {"aes": "pearson_aes", "ged": "f_0_5_ged", "ner": "f1_score_avg_ner"}, "regression_tasks": ["aes"], "classification_tasks": ["ner", "ged"], "fce_tasks": ["aes", "ged"], "task_priorities_priority_as_key": {"primary_task": "aes", "secondary_task": "ged", "aux_task": "ner"}, "early_stopping_patience": 2, "early_stopping_metric": "loss", "pretrained_model": "distilroberta-base", "frozen_layers": "all", "scoring": "script", "learning_rate": 0.0005, "batch_size": 8, "weight_decay": 0.01, "adam_epsilon": 1e-08, "normalized_values": null, "model_name": "distilroberta-base_1630624374", "runtime": 289.95122027397156, "steps_per_sec": 0.1824740215695227}, "preds": {"aes": {"preds": [-0.1369233876466751, -0.14550231397151947, -0.15783429145812988, -0.15554308891296387, -0.1598024070262909, -0.1531958132982254, -0.14988350868225098, -0.1429072469472885, -0.15580826997756958, -0.15303021669387817, -0.14878709614276886, -0.14074023067951202, -0.14237508177757263, -0.14669525623321533, -0.14843082427978516, -0.14645612239837646, -0.13812123239040375, -0.13799341022968292, -0.14407923817634583, -0.14704333245754242, -0.14884626865386963, -0.15427814424037933, -0.14872834086418152, -0.147788867354393, -0.13769398629665375, -0.14574067294597626, -0.14263953268527985, -0.15277467668056488, -0.141482412815094, -0.14147764444351196, -0.15222761034965515, -0.15507692098617554, -0.15483105182647705, -0.15433986485004425, -0.14495782554149628, -0.13616898655891418, -0.1516021192073822, -0.14429660141468048, -0.14991138875484467, -0.15413503348827362, -0.14770285785198212, -0.14605557918548584, -0.14835186302661896, -0.14100709557533264, -0.1361587792634964, -0.14629675447940826, -0.14592775702476501, -0.14354991912841797, -0.14809496700763702, -0.14803768694400787, -0.15218591690063477, -0.14964789152145386, -0.14307914674282074, -0.1440371423959732, -0.14904968440532684, -0.14320558309555054, -0.14731010794639587, -0.1516810953617096, -0.14067687094211578, -0.14991135895252228, -0.14989574253559113, -0.14809507131576538, -0.1345871537923813, -0.14418596029281616, -0.14771012961864471, -0.1476077139377594, -0.1444953978061676, -0.13939575850963593, -0.15152813494205475, -0.13980820775032043, -0.15319304168224335, -0.1526241898536682, -0.15557102859020233, -0.14598459005355835, -0.1296720802783966, -0.15382912755012512, -0.14853599667549133, -0.14564114809036255, -0.13922785222530365, -0.1373850703239441, -0.1428161859512329, -0.14962442219257355, -0.1490028351545334, -0.13834543526172638, -0.1513139307498932, -0.14813825488090515, -0.14511710405349731, -0.16126514971256256, -0.1515195518732071, -0.14004398882389069, -0.14131848514080048, -0.13499955832958221, -0.1516030877828598, -0.15039891004562378, -0.15365149080753326, -0.13688376545906067], "labels": [30.0, 26.0, 23.0, 26.0, 26.0, 38.0, 27.0, 39.0, 25.0, 24.0, 25.0, 27.0, 30.0, 27.0, 20.0, 21.0, 21.0, 26.0, 22.0, 24.0, 38.0, 30.0, 34.0, 24.0, 23.0, 22.0, 23.0, 39.0, 34.0, 37.0, 31.0, 28.0, 26.0, 29.0, 34.0, 26.0, 34.0, 19.0, 26.0, 31.0, 18.0, 19.0, 25.0, 26.0, 29.0, 29.0, 18.0, 27.0, 35.0, 22.0, 36.0, 14.0, 24.0, 29.0, 28.0, 24.0, 25.0, 37.0, 24.0, 36.0, 13.0, 23.0, 29.0, 31.0, 23.0, 28.0, 26.0, 26.0, 21.0, 38.0, 32.0, 29.0, 36.0, 40.0, 29.0, 34.0, 36.0, 25.0, 37.0, 17.0, 32.0, 25.0, 25.0, 36.0, 31.0, 27.0, 19.0, 28.0, 24.0, 20.0, 25.0, 23.0, 22.0, 23.0, 27.0, 30.0]}}}