{"best": {"aes": {"rmse_aes": 1137.810580310566, "pearson_aes": -0.08578653439388807, "spearman_aes": -0.04421666186531198, "kappa_aes": -0.0006197706848467543, "aes": 0.0, "aes_weight_coef": 0.0}, "ged": {"f1_score_avg_ged": 0.6968821972431336, "f1_score_macro_ged": 0.6024719438874898, "f1_score_weighted_ged": 0.7440307190571955, "f_0_5_ged": 0.5715357209825613, "ged": 0.11288077956022219, "ged_weight_coef": 1.0}, "ner": {"f1_score_avg_ner": 0.9788364939060006, "f1_score_macro_ner": 0.889714692003057, "f1_score_weighted_ner": 0.9785247546230182, "ner": 0.005919035345445885, "ner_weight_coef": 0.10000000149011612}}, "train": {"loss": [0.32, 0.246], "learning_rate": [0.0004528301886792453, 0.0004056603773584906], "epoch": [1.89, 3.77], "step": [500, 1000]}, "eval": {"rmse_aes": [1137.810580310566, 1137.810580310566, 1137.810580310566, 1137.810580310566, 1137.7983552555445], "pearson_aes": [-0.08578653439388807, -0.08578653439388807, -0.08578653439388807, -0.08578653439388807, -0.10287292842781469], "spearman_aes": [-0.04421666186531198, -0.04421666186531198, -0.04421666186531198, -0.04421666186531198, -0.08428843155699102], "kappa_aes": [-0.0006197706848467543, -0.0006197706848467543, -0.0006197706848467543, -0.0006197706848467543, -0.00099847383532925], "f1_score_avg_ged": [0.6737478945378296, 0.6931353339520814, 0.6968821972431336, 0.7336633323020866, 0.812484960984497], "f1_score_macro_ged": [0.5783735251625068, 0.5959731210751507, 0.6024719438874898, 0.6264126955090337, 0.6695669735495191], "f1_score_weighted_ged": [0.7249023607950044, 0.7407493133592468, 0.7440307190571955, 0.7726773254127948, 0.8283589272869916], "f_0_5_ged": [0.5335851292305414, 0.5548239012642986, 0.5715357209825613, 0.5697881607602454, 0.5186549976969138], "f1_score_avg_ner": [0.9331412328180366, 0.9694521241384682, 0.9749230948950586, 0.9777461936840466, 0.9788364939060006], "f1_score_macro_ner": [0.5509273654592806, 0.8311022539757588, 0.8706130060993791, 0.8829777780147959, 0.889714692003057], "f1_score_weighted_ner": [0.9216416118111321, 0.9687863933526244, 0.974870736693872, 0.9774763319450914, 0.9785247546230182], "aes": [0.0, 0.0, 0.0, 0.0, 0.0], "ged": [0.1181551176448201, 0.1132139383360397, 0.11288077956022219, 0.11378908850425898, 0.13421968803849332], "ner": [0.01703179668808399, 0.008965026311099876, 0.007056081207295836, 0.006366734452502325, 0.005919035345445885], "total_loss": [0.13518691433290408, 0.12217896464713958, 0.11993686076751801, 0.1201558229567613, 0.1401387233839392], "aes_weight_coef": [0.0, 0.0, 0.0, 0.0, 0.0], "ged_weight_coef": [1.0, 1.0, 1.0, 1.0, 1.0], "ner_weight_coef": [0.10000000149011612, 0.10000000149011612, 0.10000000149011612, 0.10000000149011612, 0.10000000149011612], "epoch": [1.0, 2.0, 3.0, 4.0, 5.0], "step": [264, 529, 794, 1059, 1324]}, "test": {"rmse_aes": 1122.8488832355551, "pearson_aes": 0.03550247215772167, "spearman_aes": 0.04635145917145024, "kappa_aes": 0.00048738904372014336, "f1_score_avg_ged": 0.7948430193720775, "f1_score_macro_ged": 0.6608645620459862, "f1_score_weighted_ged": 0.8094352400781712, "f_0_5_ged": 0.5033643892339545, "f1_score_avg_ner": 0.9703025734898245, "f1_score_macro_ner": 0.8464533424274884, "f1_score_weighted_ner": 0.9704114876922388, "aes": 0.0, "ged": 0.2078262453987485, "ner": 0.008008241631268035, "total_loss": 0.21583448703001654, "aes_weight_coef": 0.0, "ged_weight_coef": 1.0, "ner_weight_coef": 0.10000000149011612}, "info": {"tasks": ["aes", "ged", "ner"], "outputs": ["loss", "labels", "preds"], "map_out_to_task": {"aes_loss": "aes", "aes_labels": "aes", "aes_preds": "aes", "ged_loss": "ged", "ged_labels": "ged", "ged_preds": "ged", "ner_loss": "ner", "ner_labels": "ner", "ner_preds": "ner"}, "map_out_to_out": {"aes_loss": "loss", "aes_labels": "labels", "aes_preds": "preds", "ged_loss": "loss", "ged_labels": "labels", "ged_preds": "preds", "ner_loss": "loss", "ner_labels": "labels", "ner_preds": "preds"}, "map_task_index": {"aes": 0, "ged": 1, "ner": 2}, "map_index_task": {"0": "aes", "1": "ged", "2": "ner"}, "optimizer_weighting": "fixed", "epochs_to_avg_over": 2, "temp": 2, "init_task_weightings": {"aes": 0.0, "ged": 1.0, "ner": 0.1}, "metrics_to_track_by_task": {"aes": "pearson_aes", "ged": "f_0_5_ged", "ner": "f1_score_avg_ner"}, "regression_tasks": ["aes"], "classification_tasks": ["ner", "ged"], "fce_tasks": ["aes", "ged"], "task_priorities_priority_as_key": {"primary_task": "aes", "secondary_task": "ged", "aux_task": "ner"}, "early_stopping_patience": 2, "early_stopping_metric": "loss", "pretrained_model": "distilroberta-base", "frozen_layers": "all", "scoring": "script", "learning_rate": 0.0005, "batch_size": 8, "weight_decay": 0.01, "adam_epsilon": 1e-08, "normalized_values": [40, 0], "model_name": "distilroberta-base_1630661863", "runtime": 291.4943506717682, "steps_per_sec": 0.22016189627777052}, "preds": {"aes": {"preds": [-0.04365260899066925, -0.04153221473097801, -0.04999301955103874, -0.04061916470527649, -0.052654433995485306, -0.048022449016571045, -0.046387024223804474, -0.04769059643149376, -0.03956150636076927, -0.04794976860284805, -0.04006984084844589, -0.0500003807246685, -0.04034316539764404, -0.04489731416106224, -0.05033617466688156, -0.05626343935728073, -0.0469951331615448, -0.043922118842601776, -0.0434219054877758, -0.04338264465332031, -0.04321266710758209, -0.042273130267858505, -0.048838354647159576, -0.04564134404063225, -0.04567650333046913, -0.05447288602590561, -0.03557843714952469, -0.04961097612977028, -0.04820775240659714, -0.03539903461933136, -0.037657707929611206, -0.041487131267786026, -0.036902520805597305, -0.0423874706029892, -0.04479515552520752, -0.05096711963415146, -0.04584197327494621, -0.048416078090667725, -0.04002520814538002, -0.05763249844312668, -0.04260842129588127, -0.05076722800731659, -0.04884488135576248, -0.050834279507398605, -0.039713528007268906, -0.044343624264001846, -0.04870065674185753, -0.05134206265211105, -0.03852175548672676, -0.0398993045091629, -0.05665440857410431, -0.04516279697418213, -0.041481491178274155, -0.03683963790535927, -0.052531760185956955, -0.038621023297309875, -0.04103780910372734, -0.04312711954116821, -0.04857517406344414, -0.0512431263923645, -0.054975446313619614, -0.042977865785360336, -0.03377899155020714, -0.05035656690597534, -0.04926244914531708, -0.04785870388150215, -0.04834282025694847, -0.05165953189134598, -0.054222963750362396, -0.041428934782743454, -0.039129506796598434, -0.035974252969026566, -0.0528268925845623, -0.040007807314395905, -0.03874906897544861, -0.045496877282857895, -0.03980828821659088, -0.04552164301276207, -0.04483744129538536, -0.049535926431417465, -0.050263676792383194, -0.052703142166137695, -0.040536511689424515, -0.04651492089033127, -0.047667495906353, -0.04758733510971069, -0.05029362812638283, -0.046183161437511444, -0.0360623374581337, -0.0488555021584034, -0.05199160426855087, -0.05980139598250389, -0.048676732927560806, -0.05532805249094963, -0.0483180433511734, -0.04521780088543892], "labels": [30.0, 26.0, 23.0, 26.0, 26.0, 38.0, 27.0, 39.0, 25.0, 24.0, 25.0, 27.0, 30.0, 27.0, 20.0, 21.0, 21.0, 26.0, 22.0, 24.0, 38.0, 30.0, 34.0, 24.0, 23.0, 22.0, 23.0, 39.0, 34.0, 37.0, 31.0, 28.0, 26.0, 29.0, 34.0, 26.0, 34.0, 19.0, 26.0, 31.0, 18.0, 19.0, 25.0, 26.0, 29.0, 29.0, 18.0, 27.0, 35.0, 22.0, 36.0, 14.0, 24.0, 29.0, 28.0, 24.0, 25.0, 37.0, 24.0, 36.0, 13.0, 23.0, 29.0, 31.0, 23.0, 28.0, 26.0, 26.0, 21.0, 38.0, 32.0, 29.0, 36.0, 40.0, 29.0, 34.0, 36.0, 25.0, 37.0, 17.0, 32.0, 25.0, 25.0, 36.0, 31.0, 27.0, 19.0, 28.0, 24.0, 20.0, 25.0, 23.0, 22.0, 23.0, 27.0, 30.0]}}}