{"best": {"aes": {"rmse_aes": 28.396253665267576, "pearson_aes": NaN, "spearman_aes": NaN, "kappa_aes": 0.0, "aes": 0.0, "aes_weight_coef": 0.0}, "ged": {"f1_score_avg_ged": 0.7787975662576054, "f1_score_macro_ged": 0.6392814731379504, "f1_score_weighted_ged": 0.8032043999257299, "f_0_5_ged": 0.5015384615384616, "ged": 0.12123566034228303, "ged_weight_coef": 1.0}, "ner": {"f1_score_avg_ner": 0.9389821268642187, "f1_score_macro_ner": 0.7061913619123946, "f1_score_weighted_ner": 0.9349595424162721, "ner": 0.01562897631422032, "ner_weight_coef": 0.10000000149011612}}, "train": {"loss": [0.3398, 0.3014, 0.2863], "learning_rate": [6.339622641509433e-05, 5.679245283018868e-05, 5.0188679245283013e-05], "epoch": [1.89, 3.77, 5.66], "step": [500, 1000, 1500]}, "eval": {"rmse_aes": [28.396253665267576, 28.396253665267576, 28.396253665267576, 28.396253665267576, 28.396253665267576, 28.396253665267576], "pearson_aes": [NaN, NaN, NaN, NaN, NaN, NaN], "spearman_aes": [NaN, NaN, NaN, NaN, NaN, NaN], "kappa_aes": [0.0, 0.0, 0.0, 0.0, 0.0, 0.0], "f1_score_avg_ged": [0.7304320923997113, 0.7825444295486577, 0.8070881028496786, 0.7787975662576054, 0.7943693925956481, 0.8118318380255062], "f1_score_macro_ged": [0.6019649472302757, 0.6351290562548229, 0.6481832482165295, 0.6392814731379504, 0.6487490006780292, 0.6594114592877649], "f1_score_weighted_ged": [0.7671991763624043, 0.8045957476239779, 0.8209539757975662, 0.8032043999257299, 0.8140072715120918, 0.825898278609905], "f_0_5_ged": [0.4855027760641579, 0.4780546731689857, 0.4612277488140528, 0.5015384615384616, 0.49500248744968567, 0.48594546560029933], "f1_score_avg_ner": [0.882929013667692, 0.912133483898602, 0.9226860324753708, 0.9309022234336669, 0.9353997118492271, 0.9389821268642187], "f1_score_macro_ner": [0.3520515371550845, 0.4927788250309695, 0.5767964240022403, 0.6470069555938882, 0.6826133935777731, 0.7061913619123946], "f1_score_weighted_ner": [0.8501010282645607, 0.8956953324366361, 0.9120455231694519, 0.9235994011496917, 0.9299472683098056, 0.9349595424162721], "aes": [0.0, 0.0, 0.0, 0.0, 0.0, 0.0], "ged": [0.12629873392193816, 0.12522020589473637, 0.12638489590134733, 0.12123566034228303, 0.1225990334222483, 0.12480916533359261], "ner": [0.0349989389610845, 0.024282960654344668, 0.020017594705487408, 0.017813571490520656, 0.016466610913359842, 0.01562897631422032], "total_loss": [0.16129767288302266, 0.14950316654908102, 0.14640249060683472, 0.13904923183280368, 0.13906564433560814, 0.14043814164781293], "aes_weight_coef": [0.0, 0.0, 0.0, 0.0, 0.0, 0.0], "ged_weight_coef": [1.0, 1.0, 1.0, 1.0, 1.0, 1.0], "ner_weight_coef": [0.10000000149011612, 0.10000000149011612, 0.10000000149011612, 0.10000000149011612, 0.10000000149011612, 0.10000000149011612], "epoch": [1.0, 2.0, 3.0, 4.0, 5.0, 6.0], "step": [264, 529, 794, 1059, 1324, 1589]}, "test": {"rmse_aes": 28.024171114712146, "pearson_aes": NaN, "spearman_aes": NaN, "kappa_aes": 0.0, "f1_score_avg_ged": 0.7885905143620574, "f1_score_macro_ged": 0.6527217172174357, "f1_score_weighted_ged": 0.8041223568653258, "f_0_5_ged": 0.4918455488944757, "f1_score_avg_ner": 0.9334338322386131, "f1_score_macro_ner": 0.6993383409276415, "f1_score_weighted_ner": 0.9303269543331066, "aes": 0.0, "ged": 0.17711379414512998, "ner": 0.015268508278365647, "total_loss": 0.19238230242349563, "aes_weight_coef": 0.0, "ged_weight_coef": 1.0, "ner_weight_coef": 0.10000000149011612}, "info": {"tasks": ["aes", "ged", "ner"], "outputs": ["loss", "labels", "preds"], "map_out_to_task": {"aes_loss": "aes", "aes_labels": "aes", "aes_preds": "aes", "ged_loss": "ged", "ged_labels": "ged", "ged_preds": "ged", "ner_loss": "ner", "ner_labels": "ner", "ner_preds": "ner"}, "map_out_to_out": {"aes_loss": "loss", "aes_labels": "labels", "aes_preds": "preds", "ged_loss": "loss", "ged_labels": "labels", "ged_preds": "preds", "ner_loss": "loss", "ner_labels": "labels", "ner_preds": "preds"}, "map_task_index": {"aes": 0, "ged": 1, "ner": 2}, "map_index_task": {"0": "aes", "1": "ged", "2": "ner"}, "optimizer_weighting": "fixed", "epochs_to_avg_over": 2, "temp": 2, "init_task_weightings": {"aes": 0, "ged": 1, "ner": 0.1}, "metrics_to_track_by_task": {"aes": "pearson_aes", "ged": "f_0_5_ged", "ner": "f1_score_avg_ner"}, "regression_tasks": ["aes"], "classification_tasks": ["ner", "ged"], "fce_tasks": ["aes", "ged"], "task_priorities_priority_as_key": {"primary_task": "aes", "secondary_task": "ged", "aux_task": "ner"}, "early_stopping_patience": 2, "early_stopping_metric": "loss", "pretrained_model": "distilroberta-base", "frozen_layers": "all", "scoring": "script", "learning_rate": 7e-05, "batch_size": 8, "weight_decay": 0.01, "adam_epsilon": 1e-08, "normalized_values": null, "model_name": "distilroberta-base_1630620134", "runtime": 228.03878712654114, "steps_per_sec": 0.14351087924892456}, "preds": {"aes": {"preds": [-0.041567977517843246, -0.03146178275346756, -0.033087197691202164, -0.034302759915590286, -0.027377191931009293, -0.02448967471718788, -0.027290793135762215, -0.03517727181315422, -0.029899679124355316, -0.04064805805683136, -0.029523678123950958, -0.042783934623003006, -0.033200301229953766, -0.04199812561273575, -0.03615947440266609, -0.024988310411572456, -0.021530866622924805, -0.026344846934080124, -0.04106217995285988, -0.03292495757341385, -0.04159388691186905, -0.04280612990260124, -0.03985323756933212, -0.0442718006670475, -0.03420146182179451, -0.025872807949781418, -0.011155668646097183, -0.04477430880069733, -0.049185145646333694, -0.03873784840106964, -0.030386611819267273, -0.03964158892631531, -0.026507556438446045, -0.02842249721288681, -0.042065564543008804, -0.034787651151418686, -0.04356273263692856, -0.024667195975780487, -0.041198134422302246, -0.029292713850736618, -0.015003368258476257, -0.027662575244903564, -0.046970270574092865, -0.04861113056540489, -0.037911687046289444, -0.03908352926373482, -0.029537081718444824, -0.03532204031944275, -0.03817831724882126, -0.014693234115839005, -0.04408969730138779, -0.03364292159676552, -0.028151899576187134, -0.020404934883117676, -0.03784840181469917, -0.03572271391749382, -0.029611825942993164, -0.05474751070141792, -0.024419479072093964, -0.040914081037044525, -0.016884613782167435, -0.03717757761478424, -0.03457566350698471, -0.05038875341415405, -0.03465118259191513, -0.04155628755688667, -0.026400934904813766, -0.05439502000808716, -0.025258176028728485, -0.03960992395877838, -0.02906438708305359, -0.03838960826396942, -0.040172941982746124, -0.04336182773113251, -0.04196403920650482, -0.03731679916381836, -0.03143197298049927, -0.040300555527210236, -0.04029479995369911, -0.025746341794729233, -0.02704249508678913, -0.02925027161836624, -0.03366314619779587, -0.042290546000003815, -0.042570777237415314, -0.038503602147102356, -0.034494753926992416, -0.029433561488986015, -0.0261765718460083, -0.034449733793735504, -0.03366488963365555, -0.040886618196964264, -0.028754085302352905, -0.03128373250365257, -0.045406416058540344, -0.04003077745437622], "labels": [30.0, 26.0, 23.0, 26.0, 26.0, 38.0, 27.0, 39.0, 25.0, 24.0, 25.0, 27.0, 30.0, 27.0, 20.0, 21.0, 21.0, 26.0, 22.0, 24.0, 38.0, 30.0, 34.0, 24.0, 23.0, 22.0, 23.0, 39.0, 34.0, 37.0, 31.0, 28.0, 26.0, 29.0, 34.0, 26.0, 34.0, 19.0, 26.0, 31.0, 18.0, 19.0, 25.0, 26.0, 29.0, 29.0, 18.0, 27.0, 35.0, 22.0, 36.0, 14.0, 24.0, 29.0, 28.0, 24.0, 25.0, 37.0, 24.0, 36.0, 13.0, 23.0, 29.0, 31.0, 23.0, 28.0, 26.0, 26.0, 21.0, 38.0, 32.0, 29.0, 36.0, 40.0, 29.0, 34.0, 36.0, 25.0, 37.0, 17.0, 32.0, 25.0, 25.0, 36.0, 31.0, 27.0, 19.0, 28.0, 24.0, 20.0, 25.0, 23.0, 22.0, 23.0, 27.0, 30.0]}}}