{"best": {"aes": {"rmse_aes": 28.396253665267576, "pearson_aes": NaN, "spearman_aes": NaN, "kappa_aes": 0.0, "aes": 0.0, "aes_weight_coef": 0.0}, "ged": {"f1_score_avg_ged": 0.7719569626344918, "f1_score_macro_ged": 0.6397064144211038, "f1_score_weighted_ged": 0.7992099550379542, "f_0_5_ged": 0.5203083947107723, "ged": 0.118558804656184, "ged_weight_coef": 1.0}, "ner": {"f1_score_avg_ner": 0.9512285347143803, "f1_score_macro_ner": 0.7669251981344911, "f1_score_weighted_ner": 0.9483826578054866, "ner": 0.01203530797258366, "ner_weight_coef": 0.10000000149011612}}, "train": {"loss": [0.3384, 0.2969, 0.2807], "learning_rate": [6.339622641509433e-05, 5.679245283018868e-05, 5.0188679245283013e-05], "epoch": [1.89, 3.77, 5.66], "step": [500, 1000, 1500]}, "eval": {"rmse_aes": [28.396253665267576, 28.396253665267576, 28.396253665267576, 28.396253665267576, 28.396253665267576, 28.396253665267576, 28.396253665267576], "pearson_aes": [NaN, NaN, NaN, NaN, NaN, NaN, NaN], "spearman_aes": [NaN, NaN, NaN, NaN, NaN, NaN, NaN], "kappa_aes": [0.0, 0.0, 0.0, 0.0, 0.0, 0.0, 0.0], "f1_score_avg_ged": [0.8127599601251246, 0.7528101474682891, 0.794953765769482, 0.7719569626344918, 0.7948506410917466, 0.8002818741191434, 0.8038224880547248], "f1_score_macro_ged": [0.6394881524445561, 0.6221235691882576, 0.6480678895790531, 0.6397064144211038, 0.6532282562452438, 0.6578124195239609, 0.6600658326627652], "f1_score_weighted_ged": [0.82211601915746, 0.7845040107652176, 0.8142035217052607, 0.7992099550379542, 0.8151596765390479, 0.8191502915781826, 0.8215963973983019], "f_0_5_ged": [0.4203347199380866, 0.5047611022162299, 0.4912010159651669, 0.5203083947107723, 0.5091905981753629, 0.5108513433917811, 0.5092592592592593], "f1_score_avg_ner": [0.8983684435964332, 0.9238736809314279, 0.934659865270044, 0.938125462404112, 0.945251353140454, 0.949164752151396, 0.9512285347143803], "f1_score_macro_ner": [0.43985301188442494, 0.5634015582075924, 0.6671284250815794, 0.69304830907904, 0.7303926095442382, 0.7528619464063745, 0.7669251981344911], "f1_score_weighted_ner": [0.887316428020333, 0.9169110828982041, 0.9297113718096252, 0.9337907032857525, 0.9414499032064129, 0.9461619503732699, 0.9483826578054866], "aes": [0.0, 0.0, 0.0, 0.0, 0.0, 0.0, 0.0], "ged": [0.13198939173720603, 0.12125524670578712, 0.12242164168246956, 0.118558804656184, 0.1199941967808923, 0.1214103851207467, 0.12148602618727573], "ner": [0.02813787641393584, 0.019086460994426593, 0.016265890301140243, 0.015141201833652895, 0.013513248597899841, 0.01255773049021183, 0.01203530797258366], "total_loss": [0.16012726815114187, 0.14034170770021373, 0.1386875319836098, 0.1337000064898369, 0.13350744537879214, 0.13396811561095853, 0.1335213341598594], "aes_weight_coef": [0.0, 0.0, 0.0, 0.0, 0.0, 0.0, 0.0], "ged_weight_coef": [1.0, 1.0, 1.0, 1.0, 1.0, 1.0, 1.0], "ner_weight_coef": [0.10000000149011612, 0.10000000149011612, 0.10000000149011612, 0.10000000149011612, 0.10000000149011612, 0.10000000149011612, 0.10000000149011612], "epoch": [1.0, 2.0, 3.0, 4.0, 5.0, 6.0, 7.0], "step": [264, 529, 794, 1059, 1324, 1589, 1854]}, "test": {"rmse_aes": 28.024171114712146, "pearson_aes": NaN, "spearman_aes": NaN, "kappa_aes": 0.0, "f1_score_avg_ged": 0.7768603874415497, "f1_score_macro_ged": 0.64828417356158, "f1_score_weighted_ged": 0.7965036599969262, "f_0_5_ged": 0.5066494796742855, "f1_score_avg_ner": 0.9471303973296005, "f1_score_macro_ner": 0.7482784991745275, "f1_score_weighted_ner": 0.945117776348007, "aes": 0.0, "ged": 0.17508419212840853, "ner": 0.012194895318576269, "total_loss": 0.1872790874469848, "aes_weight_coef": 0.0, "ged_weight_coef": 1.0, "ner_weight_coef": 0.10000000149011612}, "info": {"tasks": ["aes", "ged", "ner"], "outputs": ["loss", "labels", "preds"], "map_out_to_task": {"aes_loss": "aes", "aes_labels": "aes", "aes_preds": "aes", "ged_loss": "ged", "ged_labels": "ged", "ged_preds": "ged", "ner_loss": "ner", "ner_labels": "ner", "ner_preds": "ner"}, "map_out_to_out": {"aes_loss": "loss", "aes_labels": "labels", "aes_preds": "preds", "ged_loss": "loss", "ged_labels": "labels", "ged_preds": "preds", "ner_loss": "loss", "ner_labels": "labels", "ner_preds": "preds"}, "map_task_index": {"aes": 0, "ged": 1, "ner": 2}, "map_index_task": {"0": "aes", "1": "ged", "2": "ner"}, "optimizer_weighting": "fixed", "epochs_to_avg_over": 2, "temp": 2, "init_task_weightings": {"aes": 0, "ged": 1, "ner": 0.1}, "metrics_to_track_by_task": {"aes": "pearson_aes", "ged": "f_0_5_ged", "ner": "f1_score_avg_ner"}, "regression_tasks": ["aes"], "classification_tasks": ["ner", "ged"], "fce_tasks": ["aes", "ged"], "task_priorities_priority_as_key": {"primary_task": "aes", "secondary_task": "ged", "aux_task": "ner"}, "early_stopping_patience": 2, "early_stopping_metric": "loss", "pretrained_model": "distilroberta-base", "frozen_layers": "all", "scoring": "script", "learning_rate": 7e-05, "batch_size": 8, "weight_decay": 0.01, "adam_epsilon": 1e-08, "normalized_values": null, "model_name": "distilroberta-base_1630621032", "runtime": 336.40415835380554, "steps_per_sec": 0.18144776610237623}, "preds": {"aes": {"preds": [-0.13841897249221802, -0.14710310101509094, -0.15954776108264923, -0.15725241601467133, -0.1615453064441681, -0.1548689901828766, -0.15153002738952637, -0.1444673091173172, -0.15751974284648895, -0.15470895171165466, -0.1504163295030594, -0.14227613806724548, -0.14393630623817444, -0.14830012619495392, -0.15004752576351166, -0.1480635553598404, -0.13963130116462708, -0.13950584828853607, -0.14565330743789673, -0.14865660667419434, -0.15047329664230347, -0.15596483647823334, -0.15035563707351685, -0.14940707385540009, -0.13919496536254883, -0.14733156561851501, -0.14421014487743378, -0.15444320440292358, -0.1430257260799408, -0.14301735162734985, -0.15390345454216003, -0.15676817297935486, -0.1565333902835846, -0.1560373306274414, -0.1465470790863037, -0.13765163719654083, -0.15325912833213806, -0.1458740383386612, -0.151548370718956, -0.15582510828971863, -0.14932459592819214, -0.1476559191942215, -0.14997190237045288, -0.1425512284040451, -0.13764819502830505, -0.147896409034729, -0.14752575755119324, -0.14512412250041962, -0.14970870316028595, -0.14965811371803284, -0.1538504660129547, -0.15128347277641296, -0.1446501761674881, -0.1456102877855301, -0.15068016946315765, -0.14477987587451935, -0.14892752468585968, -0.15334349870681763, -0.14221426844596863, -0.15154989063739777, -0.15154029428958893, -0.14971114695072174, -0.13605740666389465, -0.145766481757164, -0.14933277666568756, -0.14921905100345612, -0.1460738480091095, -0.1409245729446411, -0.15318721532821655, -0.1413436084985733, -0.15487706661224365, -0.15429304540157318, -0.1572774201631546, -0.14757585525512695, -0.1311057209968567, -0.15551188588142395, -0.15016278624534607, -0.14723612368106842, -0.14075691998004913, -0.13888433575630188, -0.14437220990657806, -0.15125666558742523, -0.15064406394958496, -0.1398579627275467, -0.1529722362756729, -0.14975814521312714, -0.14670248329639435, -0.1630309671163559, -0.15318064391613007, -0.14156976342201233, -0.14285774528980255, -0.13648594915866852, -0.1532655954360962, -0.15204721689224243, -0.15533651411533356, -0.13838550448417664], "labels": [30.0, 26.0, 23.0, 26.0, 26.0, 38.0, 27.0, 39.0, 25.0, 24.0, 25.0, 27.0, 30.0, 27.0, 20.0, 21.0, 21.0, 26.0, 22.0, 24.0, 38.0, 30.0, 34.0, 24.0, 23.0, 22.0, 23.0, 39.0, 34.0, 37.0, 31.0, 28.0, 26.0, 29.0, 34.0, 26.0, 34.0, 19.0, 26.0, 31.0, 18.0, 19.0, 25.0, 26.0, 29.0, 29.0, 18.0, 27.0, 35.0, 22.0, 36.0, 14.0, 24.0, 29.0, 28.0, 24.0, 25.0, 37.0, 24.0, 36.0, 13.0, 23.0, 29.0, 31.0, 23.0, 28.0, 26.0, 26.0, 21.0, 38.0, 32.0, 29.0, 36.0, 40.0, 29.0, 34.0, 36.0, 25.0, 37.0, 17.0, 32.0, 25.0, 25.0, 36.0, 31.0, 27.0, 19.0, 28.0, 24.0, 20.0, 25.0, 23.0, 22.0, 23.0, 27.0, 30.0]}}}